<?xml version="1.0"?>
<opencv_storage>
<cascade>
  <stageType>BOOST</stageType>
  <featureType>HAAR</featureType>
  <height>24</height>
  <width>24</width>
  <stageParams>
    <boostType>GAB</boostType>
    <minHitRate>9.9500000476837158e-01</minHitRate>
    <maxFalseAlarm>5.0000000000000000e-01</maxFalseAlarm>
    <weightTrimRate>9.4999998807907104e-01</weightTrimRate>
    <maxDepth>1</maxDepth>
    <maxWeakCount>100</maxWeakCount></stageParams>
  <featureParams>
    <maxCatCount>0</maxCatCount>
    <featSize>1</featSize>
    <mode>BASIC</mode></featureParams>
  <stageNum>6</stageNum>
  <stages>
    <!-- stage 0 -->
    <_>
      <maxWeakCount>2</maxWeakCount>
      <stageThreshold>-2.3491433262825012e-01</stageThreshold>
      <weakClassifiers>
        <_>
          <internalNodes>
            0 -1 12 -3.2423472404479980e-01</internalNodes>
          <leafValues>
            7.7999997138977051e-01 -9.8594379425048828e-01</leafValues></_>
        <_>
          <internalNodes>
            0 -1 17 -1.8241679668426514e-01</internalNodes>
          <leafValues>
            7.5102943181991577e-01 -9.9051421880722046e-01</leafValues></_></weakClassifiers></_>
    <!-- stage 1 -->
    <_>
      <maxWeakCount>3</maxWeakCount>
      <stageThreshold>-1.1712450981140137e+00</stageThreshold>
      <weakClassifiers>
        <_>
          <internalNodes>
            0 -1 3 -3.9080846309661865e-01</internalNodes>
          <leafValues>
            6.9072163105010986e-01 -9.7197198867797852e-01</leafValues></_>
        <_>
          <internalNodes>
            0 -1 17 -3.2603785395622253e-01</internalNodes>
          <leafValues>
            5.7751780748367310e-01 -8.3266276121139526e-01</leafValues></_>
        <_>
          <internalNodes>
            0 -1 8 -1.0174109786748886e-01</internalNodes>
          <leafValues>
            7.8684747219085693e-01 -7.7679091691970825e-01</leafValues></_></weakClassifiers></_>
    <!-- stage 2 -->
    <_>
      <maxWeakCount>4</maxWeakCount>
      <stageThreshold>-2.3057262897491455e+00</stageThreshold>
      <weakClassifiers>
        <_>
          <internalNodes>
            0 -1 11 -4.2253889143466949e-02</internalNodes>
          <leafValues>
            1. -8.8501411676406860e-01</leafValues></_>
        <_>
          <internalNodes>
            0 -1 13 -1.9651499390602112e-01</internalNodes>
          <leafValues>
            7.5648266077041626e-01 -8.0259549617767334e-01</leafValues></_>
        <_>
          <internalNodes>
            0 -1 6 -5.4422684479504824e-04</internalNodes>
          <leafValues>
            -9.0888512134552002e-01 3.6327904462814331e-01</leafValues></_>
        <_>
          <internalNodes>
            0 -1 0 -6.2067591352388263e-04</internalNodes>
          <leafValues>
            -9.8320358991622925e-01 2.9076859354972839e-01</leafValues></_></weakClassifiers></_>
    <!-- stage 3 -->
    <_>
      <maxWeakCount>4</maxWeakCount>
      <stageThreshold>-1.2098515033721924e+00</stageThreshold>
      <weakClassifiers>
        <_>
          <internalNodes>
            0 -1 18 1.0521154105663300e-01</internalNodes>
          <leafValues>
            -9.3849205970764160e-01 4.7727271914482117e-01</leafValues></_>
        <_>
          <internalNodes>
            0 -1 7 -3.7949103116989136e-01</internalNodes>
          <leafValues>
            4.4637992978096008e-01 -7.8610426187515259e-01</leafValues></_>
        <_>
          <internalNodes>
            0 -1 10 -1.5437053516507149e-03</internalNodes>
          <leafValues>
            -1. 2.1433344483375549e-01</leafValues></_>
        <_>
          <internalNodes>
            0 -1 4 -1.3743274030275643e-04</internalNodes>
          <leafValues>
            -8.7595349550247192e-01 3.0041134357452393e-01</leafValues></_></weakClassifiers></_>
    <!-- stage 4 -->
    <_>
      <maxWeakCount>5</maxWeakCount>
      <stageThreshold>-1.9672793149948120e+00</stageThreshold>
      <weakClassifiers>
        <_>
          <internalNodes>
            0 -1 15 6.2358200550079346e-02</internalNodes>
          <leafValues>
            -8.9035916328430176e-01 1.</leafValues></_>
        <_>
          <internalNodes>
            0 -1 9 9.1251719277352095e-04</internalNodes>
          <leafValues>
            1.3954529166221619e-01 -9.1127711534500122e-01</leafValues></_>
        <_>
          <internalNodes>
            0 -1 20 1.0004652431234717e-03</internalNodes>
          <leafValues>
            2.6595109701156616e-01 -9.4251692295074463e-01</leafValues></_>
        <_>
          <internalNodes>
            0 -1 19 3.7768423557281494e-02</internalNodes>
          <leafValues>
            -6.9693988561630249e-01 4.3797874450683594e-01</leafValues></_>
        <_>
          <internalNodes>
            0 -1 5 3.4048547968268394e-04</internalNodes>
          <leafValues>
            4.2299130558967590e-01 -8.4367752075195313e-01</leafValues></_></weakClassifiers></_>
    <!-- stage 5 -->
    <_>
      <maxWeakCount>5</maxWeakCount>
      <stageThreshold>-1.9016102552413940e+00</stageThreshold>
      <weakClassifiers>
        <_>
          <internalNodes>
            0 -1 14 7.7277392148971558e-02</internalNodes>
          <leafValues>
            -8.8146752119064331e-01 1.</leafValues></_>
        <_>
          <internalNodes>
            0 -1 16 -1.9231235980987549e-01</internalNodes>
          <leafValues>
            6.8948382139205933e-01 -7.7275347709655762e-01</leafValues></_>
        <_>
          <internalNodes>
            0 -1 1 -2.8508226387202740e-04</internalNodes>
          <leafValues>
            -8.2048547267913818e-01 3.6433622241020203e-01</leafValues></_>
        <_>
          <internalNodes>
            0 -1 2 -2.6051251916214824e-04</internalNodes>
          <leafValues>
            -9.1076207160949707e-01 2.8604510426521301e-01</leafValues></_>
        <_>
          <internalNodes>
            0 -1 21 1.9943867300753482e-05</internalNodes>
          <leafValues>
            -8.9777058362960815e-01 3.3614650368690491e-01</leafValues></_></weakClassifiers></_></stages>
  <features>
    <_>
      <rects>
        <_>
          0 0 2 15 -1.</_>
        <_>
          1 0 1 15 2.</_></rects>
      <tilted>0</tilted></_>
    <_>
      <rects>
        <_>
          0 5 3 7 -1.</_>
        <_>
          1 5 1 7 3.</_></rects>
      <tilted>0</tilted></_>
    <_>
      <rects>
        <_>
          0 6 3 3 -1.</_>
        <_>
          0 7 3 1 3.</_></rects>
      <tilted>0</tilted></_>
    <_>
      <rects>
        <_>
          0 6 24 13 -1.</_>
        <_>
          8 6 8 13 3.</_></rects>
      <tilted>0</tilted></_>
    <_>
      <rects>
        <_>
          0 7 1 4 -1.</_>
        <_>
          0 9 1 2 2.</_></rects>
      <tilted>0</tilted></_>
    <_>
      <rects>
        <_>
          0 7 3 5 -1.</_>
        <_>
          1 7 1 5 3.</_></rects>
      <tilted>0</tilted></_>
    <_>
      <rects>
        <_>
          1 3 2 4 -1.</_>
        <_>
          1 5 2 2 2.</_></rects>
      <tilted>0</tilted></_>
    <_>
      <rects>
        <_>
          1 6 21 15 -1.</_>
        <_>
          8 6 7 15 3.</_></rects>
      <tilted>0</tilted></_>
    <_>
      <rects>
        <_>
          1 14 12 7 -1.</_>
        <_>
          7 14 6 7 2.</_></rects>
      <tilted>0</tilted></_>
    <_>
      <rects>
        <_>
          2 0 7 4 -1.</_>
        <_>
          2 2 7 2 2.</_></rects>
      <tilted>0</tilted></_>
    <_>
      <rects>
        <_>
          2 0 8 4 -1.</_>
        <_>
          2 2 8 2 2.</_></rects>
      <tilted>0</tilted></_>
    <_>
      <rects>
        <_>
          2 7 4 10 -1.</_>
        <_>
          4 7 2 10 2.</_></rects>
      <tilted>0</tilted></_>
    <_>
      <rects>
        <_>
          3 3 21 21 -1.</_>
        <_>
          3 10 21 7 3.</_></rects>
      <tilted>0</tilted></_>
    <_>
      <rects>
        <_>
          3 9 12 10 -1.</_>
        <_>
          9 9 6 10 2.</_></rects>
      <tilted>0</tilted></_>
    <_>
      <rects>
        <_>
          4 3 12 12 -1.</_>
        <_>
          4 3 6 6 2.</_>
        <_>
          10 9 6 6 2.</_></rects>
      <tilted>0</tilted></_>
    <_>
      <rects>
        <_>
          11 17 6 6 -1.</_>
        <_>
          11 20 6 3 2.</_></rects>
      <tilted>0</tilted></_>
    <_>
      <rects>
        <_>
          12 0 5 18 -1.</_>
        <_>
          12 9 5 9 2.</_></rects>
      <tilted>0</tilted></_>
    <_>
      <rects>
        <_>
          13 0 8 24 -1.</_>
        <_>
          13 8 8 8 3.</_></rects>
      <tilted>0</tilted></_>
    <_>
      <rects>
        <_>
          14 12 10 8 -1.</_>
        <_>
          19 12 5 8 2.</_></rects>
      <tilted>0</tilted></_>
    <_>
      <rects>
        <_>
          17 14 4 10 -1.</_>
        <_>
          17 19 4 5 2.</_></rects>
      <tilted>0</tilted></_>
    <_>
      <rects>
        <_>
          19 0 2 6 -1.</_>
        <_>
          19 2 2 2 3.</_></rects>
      <tilted>0</tilted></_>
    <_>
      <rects>
        <_>
          22 0 2 22 -1.</_>
        <_>
          23 0 1 22 2.</_></rects>
      <tilted>0</tilted></_></features></cascade>
</opencv_storage>
