<?xml version="1.0"?>
<opencv_storage>
<stage5>
  <maxWeakCount>5</maxWeakCount>
  <stageThreshold>-1.9016102552413940e+00</stageThreshold>
  <weakClassifiers>
    <_>
      <internalNodes>
        0 -1 52414 7.7277392148971558e-02</internalNodes>
      <leafValues>
        -8.8146752119064331e-01 1.</leafValues></_>
    <_>
      <internalNodes>
        0 -1 121697 -1.9231235980987549e-01</internalNodes>
      <leafValues>
        6.8948382139205933e-01 -7.7275347709655762e-01</leafValues></_>
    <_>
      <internalNodes>
        0 -1 5016 -2.8508226387202740e-04</internalNodes>
      <leafValues>
        -8.2048547267913818e-01 3.6433622241020203e-01</leafValues></_>
    <_>
      <internalNodes>
        0 -1 5955 -2.6051251916214824e-04</internalNodes>
      <leafValues>
        -9.1076207160949707e-01 2.8604510426521301e-01</leafValues></_>
    <_>
      <internalNodes>
        0 -1 161237 1.9943867300753482e-05</internalNodes>
      <leafValues>
        -8.9777058362960815e-01 3.3614650368690491e-01</leafValues></_></weakClassifiers></stage5>
</opencv_storage>
